<?xml version="1.0"?>
<opencv_storage>
<cascade>
  <stageType>BOOST</stageType>
  <featureType>HAAR</featureType>
  <height>24</height>
  <width>24</width>
  <stageParams>
    <boostType>GAB</boostType>
    <minHitRate>9.9500000476837158e-01</minHitRate>
    <maxFalseAlarm>5.0000000000000000e-01</maxFalseAlarm>
    <weightTrimRate>9.4999998807907104e-01</weightTrimRate>
    <maxDepth>1</maxDepth>
    <maxWeakCount>100</maxWeakCount></stageParams>
  <featureParams>
    <maxCatCount>0</maxCatCount>
    <featSize>1</featSize>
    <mode>BASIC</mode></featureParams>
  <stageNum>6</stageNum>
  <stages>
    <!-- stage 0 -->
    <_>
      <maxWeakCount>3</maxWeakCount>
      <stageThreshold>-1.1497999429702759e+00</stageThreshold>
      <weakClassifiers>
        <_>
          <internalNodes>
            0 -1 3 -2.1284883841872215e-02</internalNodes>
          <leafValues>
            9.4805192947387695e-01 -9.7233200073242188e-01</leafValues></_>
        <_>
          <internalNodes>
            0 -1 13 3.9224632084369659e-02</internalNodes>
          <leafValues>
            -9.5246785879135132e-01 8.8701426982879639e-01</leafValues></_>
        <_>
          <internalNodes>
            0 -1 2 -3.2115302979946136e-02</internalNodes>
          <leafValues>
            7.7499991655349731e-01 -9.5707708597183228e-01</leafValues></_></weakClassifiers></_>
    <!-- stage 1 -->
    <_>
      <maxWeakCount>2</maxWeakCount>
      <stageThreshold>-3.3287805318832397e-01</stageThreshold>
      <weakClassifiers>
        <_>
          <internalNodes>
            0 -1 9 4.2106010019779205e-02</internalNodes>
          <leafValues>
            -9.7788941860198975e-01 6.5957444906234741e-01</leafValues></_>
        <_>
          <internalNodes>
            0 -1 8 2.7568105608224869e-02</internalNodes>
          <leafValues>
            -9.8408138751983643e-01 6.4501136541366577e-01</leafValues></_></weakClassifiers></_>
    <!-- stage 2 -->
    <_>
      <maxWeakCount>3</maxWeakCount>
      <stageThreshold>-1.0782904624938965e+00</stageThreshold>
      <weakClassifiers>
        <_>
          <internalNodes>
            0 -1 4 3.7268444895744324e-02</internalNodes>
          <leafValues>
            -9.5862066745758057e-01 8.3783781528472900e-01</leafValues></_>
        <_>
          <internalNodes>
            0 -1 10 2.7917340397834778e-02</internalNodes>
          <leafValues>
            -9.2309409379959106e-01 8.7425208091735840e-01</leafValues></_>
        <_>
          <internalNodes>
            0 -1 14 -4.5847877860069275e-02</internalNodes>
          <leafValues>
            8.0342429876327515e-01 -8.7658506631851196e-01</leafValues></_></weakClassifiers></_>
    <!-- stage 3 -->
    <_>
      <maxWeakCount>3</maxWeakCount>
      <stageThreshold>-1.1907540559768677e+00</stageThreshold>
      <weakClassifiers>
        <_>
          <internalNodes>
            0 -1 1 2.2070018574595451e-02</internalNodes>
          <leafValues>
            -9.4911938905715942e-01 8.8059699535369873e-01</leafValues></_>
        <_>
          <internalNodes>
            0 -1 11 2.6046004146337509e-02</internalNodes>
          <leafValues>
            -9.0012896060943604e-01 7.7422058582305908e-01</leafValues></_>
        <_>
          <internalNodes>
            0 -1 5 -3.4430176019668579e-02</internalNodes>
          <leafValues>
            6.5849429368972778e-01 -1.</leafValues></_></weakClassifiers></_>
    <!-- stage 4 -->
    <_>
      <maxWeakCount>3</maxWeakCount>
      <stageThreshold>-1.0895590782165527e+00</stageThreshold>
      <weakClassifiers>
        <_>
          <internalNodes>
            0 -1 0 4.0858343243598938e-02</internalNodes>
          <leafValues>
            -9.4174754619598389e-01 1.</leafValues></_>
        <_>
          <internalNodes>
            0 -1 12 1.8419366329908371e-02</internalNodes>
          <leafValues>
            -8.9946299791336060e-01 9.2036205530166626e-01</leafValues></_>
        <_>
          <internalNodes>
            0 -1 6 2.4357829242944717e-02</internalNodes>
          <leafValues>
            -8.9064574241638184e-01 7.5165140628814697e-01</leafValues></_></weakClassifiers></_>
    <!-- stage 5 -->
    <_>
      <maxWeakCount>1</maxWeakCount>
      <stageThreshold>1.</stageThreshold>
      <weakClassifiers>
        <_>
          <internalNodes>
            0 -1 7 -1.4484377577900887e-02</internalNodes>
          <leafValues>
            1. -1.</leafValues></_></weakClassifiers></_></stages>
  <features>
    <_>
      <rects>
        <_>
          0 14 6 4 -1.</_>
        <_>
          2 14 2 4 3.</_></rects>
      <tilted>0</tilted></_>
    <_>
      <rects>
        <_>
          1 9 3 6 -1.</_>
        <_>
          2 9 1 6 3.</_></rects>
      <tilted>0</tilted></_>
    <_>
      <rects>
        <_>
          2 2 6 8 -1.</_>
        <_>
          2 2 3 4 2.</_>
        <_>
          5 6 3 4 2.</_></rects>
      <tilted>0</tilted></_>
    <_>
      <rects>
        <_>
          2 4 4 6 -1.</_>
        <_>
          2 4 2 3 2.</_>
        <_>
          4 7 2 3 2.</_></rects>
      <tilted>0</tilted></_>
    <_>
      <rects>
        <_>
          2 17 8 6 -1.</_>
        <_>
          2 17 4 3 2.</_>
        <_>
          6 20 4 3 2.</_></rects>
      <tilted>0</tilted></_>
    <_>
      <rects>
        <_>
          5 3 2 21 -1.</_>
        <_>
          5 10 2 7 3.</_></rects>
      <tilted>0</tilted></_>
    <_>
      <rects>
        <_>
          5 21 18 3 -1.</_>
        <_>
          11 21 6 3 3.</_></rects>
      <tilted>0</tilted></_>
    <_>
      <rects>
        <_>
          8 13 14 3 -1.</_>
        <_>
          15 13 7 3 2.</_></rects>
      <tilted>0</tilted></_>
    <_>
      <rects>
        <_>
          9 6 6 6 -1.</_>
        <_>
          9 9 6 3 2.</_></rects>
      <tilted>0</tilted></_>
    <_>
      <rects>
        <_>
          9 14 12 6 -1.</_>
        <_>
          9 14 6 3 2.</_>
        <_>
          15 17 6 3 2.</_></rects>
      <tilted>0</tilted></_>
    <_>
      <rects>
        <_>
          12 2 8 4 -1.</_>
        <_>
          12 2 4 2 2.</_>
        <_>
          16 4 4 2 2.</_></rects>
      <tilted>0</tilted></_>
    <_>
      <rects>
        <_>
          15 1 3 6 -1.</_>
        <_>
          15 3 3 2 3.</_></rects>
      <tilted>0</tilted></_>
    <_>
      <rects>
        <_>
          17 4 4 4 -1.</_>
        <_>
          17 4 2 2 2.</_>
        <_>
          19 6 2 2 2.</_></rects>
      <tilted>0</tilted></_>
    <_>
      <rects>
        <_>
          17 4 6 8 -1.</_>
        <_>
          17 4 3 4 2.</_>
        <_>
          20 8 3 4 2.</_></rects>
      <tilted>0</tilted></_>
    <_>
      <rects>
        <_>
          20 7 4 14 -1.</_>
        <_>
          22 7 2 14 2.</_></rects>
      <tilted>0</tilted></_></features></cascade>
</opencv_storage>
